<?xml version="1.0"?>
<opencv_storage>
<cascade>
  <stageType>BOOST</stageType>
  <featureType>HAAR</featureType>
  <height>24</height>
  <width>24</width>
  <stageParams>
    <boostType>GAB</boostType>
    <minHitRate>9.9500000476837158e-01</minHitRate>
    <maxFalseAlarm>5.0000000000000000e-01</maxFalseAlarm>
    <weightTrimRate>9.4999998807907104e-01</weightTrimRate>
    <maxDepth>1</maxDepth>
    <maxWeakCount>100</maxWeakCount></stageParams>
  <featureParams>
    <maxCatCount>0</maxCatCount>
    <featSize>1</featSize>
    <mode>BASIC</mode></featureParams>
  <stageNum>20</stageNum>
  <stages>
    <!-- stage 0 -->
    <_>
      <maxWeakCount>6</maxWeakCount>
      <stageThreshold>-1.0097481012344360e+00</stageThreshold>
      <weakClassifiers>
        <_>
          <internalNodes>
            0 -1 26 1.3519644737243652e-02</internalNodes>
          <leafValues>
            3.5607674717903137e-01 -8.4485667943954468e-01</leafValues></_>
        <_>
          <internalNodes>
            0 -1 63 2.3553352802991867e-02</internalNodes>
          <leafValues>
            2.9315087199211121e-01 -8.5680258274078369e-01</leafValues></_>
        <_>
          <internalNodes>
            0 -1 196 1.2122496031224728e-02</internalNodes>
          <leafValues>
            3.6558246612548828e-01 -6.5684229135513306e-01</leafValues></_>
        <_>
          <internalNodes>
            0 -1 108 -1.9215140491724014e-02</internalNodes>
          <leafValues>
            5.2772510051727295e-01 -4.9575480818748474e-01</leafValues></_>
        <_>
          <internalNodes>
            0 -1 156 -2.6041179895401001e-02</internalNodes>
          <leafValues>
            9.7461253404617310e-01 -2.9019603133201599e-01</leafValues></_>
        <_>
          <internalNodes>
            0 -1 71 6.4682103693485260e-02</internalNodes>
          <leafValues>
            -2.1618260443210602e-01 9.6809858083724976e-01</leafValues></_></weakClassifiers></_>
    <!-- stage 1 -->
    <_>
      <maxWeakCount>8</maxWeakCount>
      <stageThreshold>-9.7105211019515991e-01</stageThreshold>
      <weakClassifiers>
        <_>
          <internalNodes>
            0 -1 209 1.5799593180418015e-02</internalNodes>
          <leafValues>
            3.0000001192092896e-01 -8.5384613275527954e-01</leafValues></_>
        <_>
          <internalNodes>
            0 -1 87 -6.3724830746650696e-02</internalNodes>
          <leafValues>
            8.1121486425399780e-01 -2.8789588809013367e-01</leafValues></_>
        <_>
          <internalNodes>
            0 -1 1 5.8800857514142990e-03</internalNodes>
          <leafValues>
            5.4395884275436401e-01 -3.3362865447998047e-01</leafValues></_>
        <_>
          <internalNodes>
            0 -1 41 3.2665413618087769e-01</internalNodes>
          <leafValues>
            -1.7817263305187225e-01 8.8921117782592773e-01</leafValues></_>
        <_>
          <internalNodes>
            0 -1 5 3.1788420164957643e-04</internalNodes>
          <leafValues>
            2.9664579033851624e-01 -6.5420591831207275e-01</leafValues></_>
        <_>
          <internalNodes>
            0 -1 13 -3.0849728733301163e-02</internalNodes>
          <leafValues>
            5.8554750680923462e-01 -2.8679266571998596e-01</leafValues></_>
        <_>
          <internalNodes>
            0 -1 82 -2.7485727332532406e-03</internalNodes>
          <leafValues>
            5.1177787780761719e-01 -2.7024894952774048e-01</leafValues></_>
        <_>
          <internalNodes>
            0 -1 61 -1.8574342131614685e-01</internalNodes>
          <leafValues>
            -8.5579133033752441e-01 1.6086024045944214e-01</leafValues></_></weakClassifiers></_>
    <!-- stage 2 -->
    <_>
      <maxWeakCount>8</maxWeakCount>
      <stageThreshold>-1.0409411191940308e+00</stageThreshold>
      <weakClassifiers>
        <_>
          <internalNodes>
            0 -1 45 1.7119920812547207e-03</internalNodes>
          <leafValues>
            -4.1507720947265625e-01 5.0834262371063232e-01</leafValues></_>
        <_>
          <internalNodes>
            0 -1 185 -2.3097299039363861e-02</internalNodes>
          <leafValues>
            -7.6220053434371948e-01 2.2858579456806183e-01</leafValues></_>
        <_>
          <internalNodes>
            0 -1 36 -1.0069414228200912e-01</internalNodes>
          <leafValues>
            -6.8672972917556763e-01 2.0324596762657166e-01</leafValues></_>
        <_>
          <internalNodes>
            0 -1 172 5.0913780927658081e-02</internalNodes>
          <leafValues>
            -2.0979972183704376e-01 8.4043067693710327e-01</leafValues></_>
        <_>
          <internalNodes>
            0 -1 145 3.3116672188043594e-02</internalNodes>
          <leafValues>
            -3.2266879081726074e-01 5.9169238805770874e-01</leafValues></_>
        <_>
          <internalNodes>
            0 -1 64 4.2641093023121357e-03</internalNodes>
          <leafValues>
            2.8468534350395203e-01 -8.1671553850173950e-01</leafValues></_>
        <_>
          <internalNodes>
            0 -1 157 8.2821166142821312e-03</internalNodes>
          <leafValues>
            -3.6765629053115845e-01 4.2943188548088074e-01</leafValues></_>
        <_>
          <internalNodes>
            0 -1 113 5.8022481389343739e-03</internalNodes>
          <leafValues>
            -2.8200224041938782e-01 5.7743233442306519e-01</leafValues></_></weakClassifiers></_>
    <!-- stage 3 -->
    <_>
      <maxWeakCount>8</maxWeakCount>
      <stageThreshold>-1.0116605758666992e+00</stageThreshold>
      <weakClassifiers>
        <_>
          <internalNodes>
            0 -1 187 1.6930243000388145e-02</internalNodes>
          <leafValues>
            3.3009034395217896e-01 -8.4670233726501465e-01</leafValues></_>
        <_>
          <internalNodes>
            0 -1 89 3.4718032111413777e-04</internalNodes>
          <leafValues>
            -4.8444959521293640e-01 4.4579926133155823e-01</leafValues></_>
        <_>
          <internalNodes>
            0 -1 69 -1.7682027537375689e-03</internalNodes>
          <leafValues>
            -8.7006694078445435e-01 2.1532747149467468e-01</leafValues></_>
        <_>
          <internalNodes>
            0 -1 21 -6.5530970692634583e-02</internalNodes>
          <leafValues>
            9.1062545776367188e-01 -2.2682549059391022e-01</leafValues></_>
        <_>
          <internalNodes>
            0 -1 118 1.3323873281478882e-01</internalNodes>
          <leafValues>
            -4.2219945788383484e-01 6.2781172990798950e-01</leafValues></_>
        <_>
          <internalNodes>
            0 -1 201 1.0836664587259293e-03</internalNodes>
          <leafValues>
            4.1323149204254150e-01 -6.1143791675567627e-01</leafValues></_>
        <_>
          <internalNodes>
            0 -1 17 1.9871380180120468e-02</internalNodes>
          <leafValues>
            -2.6658096909523010e-01 9.0057682991027832e-01</leafValues></_>
        <_>
          <internalNodes>
            0 -1 59 3.7110643461346626e-05</internalNodes>
          <leafValues>
            -3.1547221541404724e-01 5.8119648694992065e-01</leafValues></_></weakClassifiers></_>
    <!-- stage 4 -->
    <_>
      <maxWeakCount>9</maxWeakCount>
      <stageThreshold>-9.9525386095046997e-01</stageThreshold>
      <weakClassifiers>
        <_>
          <internalNodes>
            0 -1 176 6.4482446759939194e-04</internalNodes>
          <leafValues>
            -3.8297873735427856e-01 6.0154241323471069e-01</leafValues></_>
        <_>
          <internalNodes>
            0 -1 18 5.6056153774261475e-01</internalNodes>
          <leafValues>
            2.6733046770095825e-01 -9.3304455280303955e-01</leafValues></_>
        <_>
          <internalNodes>
            0 -1 104 2.2221801802515984e-02</internalNodes>
          <leafValues>
            -2.8604385256767273e-01 6.9211822748184204e-01</leafValues></_>
        <_>
          <internalNodes>
            0 -1 121 8.4077216684818268e-02</internalNodes>
          <leafValues>
            -2.1654662489891052e-01 6.7274409532546997e-01</leafValues></_>
        <_>
          <internalNodes>
            0 -1 23 -3.0407950282096863e-02</internalNodes>
          <leafValues>
            7.2613370418548584e-01 -3.8977113366127014e-01</leafValues></_>
        <_>
          <internalNodes>
            0 -1 178 9.6001848578453064e-04</internalNodes>
          <leafValues>
            -3.2953903079032898e-01 4.6971625089645386e-01</leafValues></_>
        <_>
          <internalNodes>
            0 -1 68 -8.4516458213329315e-02</internalNodes>
          <leafValues>
            7.5002729892730713e-01 -1.7529679834842682e-01</leafValues></_>
        <_>
          <internalNodes>
            0 -1 125 4.0371820330619812e-02</internalNodes>
          <leafValues>
            -2.2104246914386749e-01 7.1401584148406982e-01</leafValues></_>
        <_>
          <internalNodes>
            0 -1 119 6.0126502066850662e-03</internalNodes>
          <leafValues>
            -1.5065638720989227e-01 8.0811250209808350e-01</leafValues></_></weakClassifiers></_>
    <!-- stage 5 -->
    <_>
      <maxWeakCount>10</maxWeakCount>
      <stageThreshold>-1.1450196504592896e+00</stageThreshold>
      <weakClassifiers>
        <_>
          <internalNodes>
            0 -1 131 1.2141535058617592e-02</internalNodes>
          <leafValues>
            -5.0404310226440430e-01 6.3246899843215942e-01</leafValues></_>
        <_>
          <internalNodes>
            0 -1 95 -3.7870280444622040e-02</internalNodes>
          <leafValues>
            6.4889103174209595e-01 -3.1347981095314026e-01</leafValues></_>
        <_>
          <internalNodes>
            0 -1 146 3.6657894961535931e-03</internalNodes>
          <leafValues>
            -3.4130212664604187e-01 4.3573135137557983e-01</leafValues></_>
        <_>
          <internalNodes>
            0 -1 81 4.3498735874891281e-02</internalNodes>
          <leafValues>
            -2.1509286761283875e-01 8.0995833873748779e-01</leafValues></_>
        <_>
          <internalNodes>
            0 -1 150 -3.7802453152835369e-04</internalNodes>
          <leafValues>
            3.7060105800628662e-01 -4.0829548239707947e-01</leafValues></_>
        <_>
          <internalNodes>
            0 -1 148 3.2784703653305769e-03</internalNodes>
          <leafValues>
            -1.6907046735286713e-01 6.8376332521438599e-01</leafValues></_>
        <_>
          <internalNodes>
            0 -1 133 2.9031161218881607e-02</internalNodes>
          <leafValues>
            -1.3987976312637329e-01 8.3339875936508179e-01</leafValues></_>
        <_>
          <internalNodes>
            0 -1 24 -2.0128870010375977e-01</internalNodes>
          <leafValues>
            7.8558999300003052e-01 -1.4625178277492523e-01</leafValues></_>
        <_>
          <internalNodes>
            0 -1 98 2.4938497692346573e-02</internalNodes>
          <leafValues>
            -2.3055922985076904e-01 5.8180469274520874e-01</leafValues></_>
        <_>
          <internalNodes>
            0 -1 78 -4.3162755668163300e-02</internalNodes>
          <leafValues>
            6.3541114330291748e-01 -2.3297496140003204e-01</leafValues></_></weakClassifiers></_>
    <!-- stage 6 -->
    <_>
      <maxWeakCount>8</maxWeakCount>
      <stageThreshold>-1.0435411930084229e+00</stageThreshold>
      <weakClassifiers>
        <_>
          <internalNodes>
            0 -1 112 5.2034944295883179e-02</internalNodes>
          <leafValues>
            -3.3806818723678589e-01 8.0405408143997192e-01</leafValues></_>
        <_>
          <internalNodes>
            0 -1 100 1.7085817456245422e-01</internalNodes>
          <leafValues>
            -2.3551104962825775e-01 6.4225149154663086e-01</leafValues></_>
        <_>
          <internalNodes>
            0 -1 191 -2.3530227190349251e-04</internalNodes>
          <leafValues>
            -6.0695177316665649e-01 3.0120572447776794e-01</leafValues></_>
        <_>
          <internalNodes>
            0 -1 6 -1.6631442122161388e-04</internalNodes>
          <leafValues>
            3.0530354380607605e-01 -4.4907405972480774e-01</leafValues></_>
        <_>
          <internalNodes>
            0 -1 204 -7.1647539734840393e-03</internalNodes>
          <leafValues>
            -9.0537464618682861e-01 1.3445311784744263e-01</leafValues></_>
        <_>
          <internalNodes>
            0 -1 29 5.3278475999832153e-02</internalNodes>
          <leafValues>
            2.6975747942924500e-01 -4.4344738125801086e-01</leafValues></_>
        <_>
          <internalNodes>
            0 -1 126 2.3739606142044067e-02</internalNodes>
          <leafValues>
            -1.7375619709491730e-01 6.7465776205062866e-01</leafValues></_>
        <_>
          <internalNodes>
            0 -1 139 4.1149675962515175e-04</internalNodes>
          <leafValues>
            -3.6971929669380188e-01 3.1443676352500916e-01</leafValues></_></weakClassifiers></_>
    <!-- stage 7 -->
    <_>
      <maxWeakCount>8</maxWeakCount>
      <stageThreshold>-6.8261134624481201e-01</stageThreshold>
      <weakClassifiers>
        <_>
          <internalNodes>
            0 -1 85 1.5007165074348450e-01</internalNodes>
          <leafValues>
            -3.5840708017349243e-01 7.5465840101242065e-01</leafValues></_>
        <_>
          <internalNodes>
            0 -1 128 -3.8404278457164764e-02</internalNodes>
          <leafValues>
            7.0000845193862915e-01 -2.2194832563400269e-01</leafValues></_>
        <_>
          <internalNodes>
            0 -1 120 7.1019902825355530e-02</internalNodes>
          <leafValues>
            -1.6906909644603729e-01 7.9796946048736572e-01</leafValues></_>
        <_>
          <internalNodes>
            0 -1 194 -1.1350728571414948e-02</internalNodes>
          <leafValues>
            -6.2985360622406006e-01 2.9909396171569824e-01</leafValues></_>
        <_>
          <internalNodes>
            0 -1 137 -2.7551826089620590e-02</internalNodes>
          <leafValues>
            6.9616127014160156e-01 -2.0244443416595459e-01</leafValues></_>
        <_>
          <internalNodes>
            0 -1 103 1.7238095402717590e-01</internalNodes>
          <leafValues>
            -1.1845742166042328e-01 7.9311639070510864e-01</leafValues></_>
        <_>
          <internalNodes>
            0 -1 152 7.4140825308859348e-03</internalNodes>
          <leafValues>
            -2.3542729020118713e-01 5.8762407302856445e-01</leafValues></_>
        <_>
          <internalNodes>
            0 -1 27 2.2769380360841751e-02</internalNodes>
          <leafValues>
            3.2404834032058716e-01 -3.8819971680641174e-01</leafValues></_></weakClassifiers></_>
    <!-- stage 8 -->
    <_>
      <maxWeakCount>8</maxWeakCount>
      <stageThreshold>-1.0778431892395020e+00</stageThreshold>
      <weakClassifiers>
        <_>
          <internalNodes>
            0 -1 4 -4.0417846292257309e-02</internalNodes>
          <leafValues>
            6.0458451509475708e-01 -3.2411673665046692e-01</leafValues></_>
        <_>
          <internalNodes>
            0 -1 102 -1.5545359253883362e-01</internalNodes>
          <leafValues>
            -4.7360044717788696e-01 4.2582944035530090e-01</leafValues></_>
        <_>
          <internalNodes>
            0 -1 12 -4.4381432235240936e-02</internalNodes>
          <leafValues>
            8.5682028532028198e-01 -1.6375565528869629e-01</leafValues></_>
        <_>
          <internalNodes>
            0 -1 206 1.4169460162520409e-02</internalNodes>
          <leafValues>
            2.8142341971397400e-01 -5.7244253158569336e-01</leafValues></_>
        <_>
          <internalNodes>
            0 -1 106 4.1343281045556068e-03</internalNodes>
          <leafValues>
            -2.8011885285377502e-01 4.6527534723281860e-01</leafValues></_>
        <_>
          <internalNodes>
            0 -1 183 -1.8363412469625473e-02</internalNodes>
          <leafValues>
            7.2213160991668701e-01 -1.8672604858875275e-01</leafValues></_>
        <_>
          <internalNodes>
            0 -1 198 -2.5069375988095999e-04</internalNodes>
          <leafValues>
            -5.5388838052749634e-01 2.0884311199188232e-01</leafValues></_>
        <_>
          <internalNodes>
            0 -1 180 2.0490825176239014e-02</internalNodes>
          <leafValues>
            -2.7649036049842834e-01 4.0659385919570923e-01</leafValues></_></weakClassifiers></_>
    <!-- stage 9 -->
    <_>
      <maxWeakCount>9</maxWeakCount>
      <stageThreshold>-1.0921641588211060e+00</stageThreshold>
      <weakClassifiers>
        <_>
          <internalNodes>
            0 -1 62 5.5814755614846945e-04</internalNodes>
          <leafValues>
            -4.6322068572044373e-01 4.6881288290023804e-01</leafValues></_>
        <_>
          <internalNodes>
            0 -1 202 -3.8697221316397190e-04</internalNodes>
          <leafValues>
            3.6397829651832581e-01 -4.8629608750343323e-01</leafValues></_>
        <_>
          <internalNodes>
            0 -1 43 3.6622148007154465e-02</internalNodes>
          <leafValues>
            -1.3098753988742828e-01 1.</leafValues></_>
        <_>
          <internalNodes>
            0 -1 130 7.6830340549349785e-04</internalNodes>
          <leafValues>
            -4.7396585345268250e-01 3.0510023236274719e-01</leafValues></_>
        <_>
          <internalNodes>
            0 -1 190 2.6349052786827087e-02</internalNodes>
          <leafValues>
            1.4436790347099304e-01 -8.6775010824203491e-01</leafValues></_>
        <_>
          <internalNodes>
            0 -1 199 -1.1632200330495834e-03</internalNodes>
          <leafValues>
            -6.0743433237075806e-01 1.6002051532268524e-01</leafValues></_>
        <_>
          <internalNodes>
            0 -1 117 6.5245693549513817e-03</internalNodes>
          <leafValues>
            -2.1063859760761261e-01 4.9300387501716614e-01</leafValues></_>
        <_>
          <internalNodes>
            0 -1 149 2.9878990724682808e-02</internalNodes>
          <leafValues>
            -1.6217607259750366e-01 6.4096713066101074e-01</leafValues></_>
        <_>
          <internalNodes>
            0 -1 123 -5.8514880947768688e-03</internalNodes>
          <leafValues>
            4.8040661215782166e-01 -1.8452143669128418e-01</leafValues></_></weakClassifiers></_>
    <!-- stage 10 -->
    <_>
      <maxWeakCount>12</maxWeakCount>
      <stageThreshold>-1.0531896352767944e+00</stageThreshold>
      <weakClassifiers>
        <_>
          <internalNodes>
            0 -1 3 2.3175545036792755e-02</internalNodes>
          <leafValues>
            -3.7996819615364075e-01 6.4420485496520996e-01</leafValues></_>
        <_>
          <internalNodes>
            0 -1 84 -9.9243540316820145e-03</internalNodes>
          <leafValues>
            4.8083034157752991e-01 -3.6264970898628235e-01</leafValues></_>
        <_>
          <internalNodes>
            0 -1 86 -6.2040083110332489e-02</internalNodes>
          <leafValues>
            6.7630559206008911e-01 -1.6745391488075256e-01</leafValues></_>
        <_>
          <internalNodes>
            0 -1 165 -1.8906842451542616e-03</internalNodes>
          <leafValues>
            6.7235922813415527e-01 -1.3735103607177734e-01</leafValues></_>
        <_>
          <internalNodes>
            0 -1 91 3.9862278848886490e-02</internalNodes>
          <leafValues>
            -2.1395014226436615e-01 6.1481136083602905e-01</leafValues></_>
        <_>
          <internalNodes>
            0 -1 173 2.6819057762622833e-02</internalNodes>
          <leafValues>
            -7.7797256410121918e-02 7.0572417974472046e-01</leafValues></_>
        <_>
          <internalNodes>
            0 -1 197 -8.0969603732228279e-04</internalNodes>
          <leafValues>
            3.3127427101135254e-01 -2.5718736648559570e-01</leafValues></_>
        <_>
          <internalNodes>
            0 -1 136 -4.7702004667371511e-04</internalNodes>
          <leafValues>
            3.8463607430458069e-01 -3.0304098129272461e-01</leafValues></_>
        <_>
          <internalNodes>
            0 -1 39 3.2133905915543437e-04</internalNodes>
          <leafValues>
            2.8731632232666016e-01 -4.2704409360885620e-01</leafValues></_>
        <_>
          <internalNodes>
            0 -1 116 3.6399061791598797e-03</internalNodes>
          <leafValues>
            -2.5476124882698059e-01 4.2782577872276306e-01</leafValues></_>
        <_>
          <internalNodes>
            0 -1 166 6.7982347682118416e-03</internalNodes>
          <leafValues>
            -2.6117756962776184e-01 3.4004300832748413e-01</leafValues></_>
        <_>
          <internalNodes>
            0 -1 159 1.3504500966519117e-03</internalNodes>
          <leafValues>
            -1.5778563916683197e-01 5.1814329624176025e-01</leafValues></_></weakClassifiers></_>
    <!-- stage 11 -->
    <_>
      <maxWeakCount>11</maxWeakCount>
      <stageThreshold>-1.0112228393554688e+00</stageThreshold>
      <weakClassifiers>
        <_>
          <internalNodes>
            0 -1 205 1.1919982171093579e-05</internalNodes>
          <leafValues>
            -4.0517240762710571e-01 5.5952382087707520e-01</leafValues></_>
        <_>
          <internalNodes>
            0 -1 99 1.3087811879813671e-02</internalNodes>
          <leafValues>
            -1.6161000728607178e-01 8.0051267147064209e-01</leafValues></_>
        <_>
          <internalNodes>
            0 -1 205 -1.3304679669090547e-05</internalNodes>
          <leafValues>
            4.8206910490989685e-01 -2.7301436662673950e-01</leafValues></_>
        <_>
          <internalNodes>
            0 -1 35 -1.2973383069038391e-01</internalNodes>
          <leafValues>
            8.9089494943618774e-01 -1.2544785439968109e-01</leafValues></_>
        <_>
          <internalNodes>
            0 -1 52 1.3294703327119350e-02</internalNodes>
          <leafValues>
            -3.6825808882713318e-01 4.0371963381767273e-01</leafValues></_>
        <_>
          <internalNodes>
            0 -1 19 -2.6099327951669693e-03</internalNodes>
          <leafValues>
            -5.9102708101272583e-01 1.9560317695140839e-01</leafValues></_>
        <_>
          <internalNodes>
            0 -1 109 -1.7402336001396179e-02</internalNodes>
          <leafValues>
            3.5931301116943359e-01 -2.5307613611221313e-01</leafValues></_>
        <_>
          <internalNodes>
            0 -1 50 -1.7783511430025101e-02</internalNodes>
          <leafValues>
            6.9921010732650757e-01 -2.1106664836406708e-01</leafValues></_>
        <_>
          <internalNodes>
            0 -1 143 3.3492457121610641e-02</internalNodes>
          <leafValues>
            -2.4483732879161835e-01 4.2369374632835388e-01</leafValues></_>
        <_>
          <internalNodes>
            0 -1 46 -1.6942922025918961e-02</internalNodes>
          <leafValues>
            -5.9468358755111694e-01 1.9096666574478149e-01</leafValues></_>
        <_>
          <internalNodes>
            0 -1 186 -5.6991004385054111e-03</internalNodes>
          <leafValues>
            -9.7129464149475098e-01 6.3847735524177551e-02</leafValues></_></weakClassifiers></_>
    <!-- stage 12 -->
    <_>
      <maxWeakCount>13</maxWeakCount>
      <stageThreshold>-1.0364775657653809e+00</stageThreshold>
      <weakClassifiers>
        <_>
          <internalNodes>
            0 -1 79 2.4618223309516907e-01</internalNodes>
          <leafValues>
            -2.0486322045326233e-01 9.4929575920104980e-01</leafValues></_>
        <_>
          <internalNodes>
            0 -1 25 -1.7131432890892029e-01</internalNodes>
          <leafValues>
            8.4600037336349487e-01 -8.4996789693832397e-02</leafValues></_>
        <_>
          <internalNodes>
            0 -1 177 4.4774105772376060e-03</internalNodes>
          <leafValues>
            -2.2165583074092865e-01 4.5421236753463745e-01</leafValues></_>
        <_>
          <internalNodes>
            0 -1 193 -7.7023683115839958e-04</internalNodes>
          <leafValues>
            -6.3442337512969971e-01 1.7798204720020294e-01</leafValues></_>
        <_>
          <internalNodes>
            0 -1 51 8.1576583907008171e-03</internalNodes>
          <leafValues>
            1.1880455166101456e-01 -8.5702174901962280e-01</leafValues></_>
        <_>
          <internalNodes>
            0 -1 54 3.7184395478107035e-04</internalNodes>
          <leafValues>
            1.6606535017490387e-01 -6.9123625755310059e-01</leafValues></_>
        <_>
          <internalNodes>
            0 -1 129 5.5754665285348892e-02</internalNodes>
          <leafValues>
            -1.8762896955013275e-01 5.7707941532135010e-01</leafValues></_>
        <_>
          <internalNodes>
            0 -1 40 1.4100630767643452e-02</internalNodes>
          <leafValues>
            -1.5813089907169342e-01 6.0385066270828247e-01</leafValues></_>
        <_>
          <internalNodes>
            0 -1 31 -6.9728448987007141e-02</internalNodes>
          <leafValues>
            -8.3137911558151245e-01 1.1940721422433853e-01</leafValues></_>
        <_>
          <internalNodes>
            0 -1 138 7.8496579080820084e-03</internalNodes>
          <leafValues>
            9.3894951045513153e-02 -7.6346206665039063e-01</leafValues></_>
        <_>
          <internalNodes>
            0 -1 208 3.7145349779166281e-04</internalNodes>
          <leafValues>
            1.3723798096179962e-01 -5.2840548753738403e-01</leafValues></_>
        <_>
          <internalNodes>
            0 -1 142 9.3110734596848488e-03</internalNodes>
          <leafValues>
            -2.4836003780364990e-01 3.1444871425628662e-01</leafValues></_>
        <_>
          <internalNodes>
            0 -1 164 5.5093585979193449e-04</internalNodes>
          <leafValues>
            -2.3799064755439758e-01 3.5243967175483704e-01</leafValues></_></weakClassifiers></_>
    <!-- stage 13 -->
    <_>
      <maxWeakCount>15</maxWeakCount>
      <stageThreshold>-1.0534067153930664e+00</stageThreshold>
      <weakClassifiers>
        <_>
          <internalNodes>
            0 -1 34 3.5155977820977569e-04</internalNodes>
          <leafValues>
            3.3598095178604126e-01 -5.7085019350051880e-01</leafValues></_>
        <_>
          <internalNodes>
            0 -1 107 -9.5830999314785004e-02</internalNodes>
          <leafValues>
            6.1110472679138184e-01 -2.6526176929473877e-01</leafValues></_>
        <_>
          <internalNodes>
            0 -1 171 2.9858633875846863e-02</internalNodes>
          <leafValues>
            -1.1947331577539444e-01 7.2746318578720093e-01</leafValues></_>
        <_>
          <internalNodes>
            0 -1 56 7.2630122303962708e-03</internalNodes>
          <leafValues>
            1.3865806162357330e-01 -7.8406220674514771e-01</leafValues></_>
        <_>
          <internalNodes>
            0 -1 88 3.1083848327398300e-02</internalNodes>
          <leafValues>
            1.2163902819156647e-01 -6.5894985198974609e-01</leafValues></_>
        <_>
          <internalNodes>
            0 -1 167 -3.6067534238100052e-03</internalNodes>
          <leafValues>
            5.5366396903991699e-01 -1.6405230760574341e-01</leafValues></_>
        <_>
          <internalNodes>
            0 -1 133 3.1230209395289421e-02</internalNodes>
          <leafValues>
            -2.2369746863842010e-01 5.5328273773193359e-01</leafValues></_>
        <_>
          <internalNodes>
            0 -1 44 -1.2796112569049001e-03</internalNodes>
          <leafValues>
            -4.5579877495765686e-01 2.1931201219558716e-01</leafValues></_>
        <_>
          <internalNodes>
            0 -1 38 -2.0906142890453339e-02</internalNodes>
          <leafValues>
            -5.1826375722885132e-01 1.5241022408008575e-01</leafValues></_>
        <_>
          <internalNodes>
            0 -1 92 1.2205794453620911e-02</internalNodes>
          <leafValues>
            9.4404786825180054e-02 -6.2997007369995117e-01</leafValues></_>
        <_>
          <internalNodes>
            0 -1 188 -3.2515503466129303e-02</internalNodes>
          <leafValues>
            -8.4441834688186646e-01 1.3419570028781891e-01</leafValues></_>
        <_>
          <internalNodes>
            0 -1 141 1.3501141220331192e-03</internalNodes>
          <leafValues>
            -2.7137348055839539e-01 2.9760891199111938e-01</leafValues></_>
        <_>
          <internalNodes>
            0 -1 111 -4.3183825910091400e-02</internalNodes>
          <leafValues>
            -6.2914752960205078e-01 1.5962082147598267e-01</leafValues></_>
        <_>
          <internalNodes>
            0 -1 210 -8.6350925266742706e-03</internalNodes>
          <leafValues>
            -5.2805668115615845e-01 1.4507171511650085e-01</leafValues></_>
        <_>
          <internalNodes>
            0 -1 195 -1.4658161671832204e-03</internalNodes>
          <leafValues>
            -8.1606805324554443e-01 7.1100257337093353e-02</leafValues></_></weakClassifiers></_>
    <!-- stage 14 -->
    <_>
      <maxWeakCount>16</maxWeakCount>
      <stageThreshold>-9.0847963094711304e-01</stageThreshold>
      <weakClassifiers>
        <_>
          <internalNodes>
            0 -1 11 -4.3630760163068771e-02</internalNodes>
          <leafValues>
            9.7452229261398315e-01 -1.8149466812610626e-01</leafValues></_>
        <_>
          <internalNodes>
            0 -1 137 -2.9216142371296883e-02</internalNodes>
          <leafValues>
            6.4657753705978394e-01 -1.0022420436143875e-01</leafValues></_>
        <_>
          <internalNodes>
            0 -1 93 -1.2797775864601135e-01</internalNodes>
          <leafValues>
            4.7278207540512085e-01 -1.6589079797267914e-01</leafValues></_>
        <_>
          <internalNodes>
            0 -1 65 7.8637525439262390e-03</internalNodes>
          <leafValues>
            -2.1809388697147369e-01 5.3249919414520264e-01</leafValues></_>
        <_>
          <internalNodes>
            0 -1 147 6.5721170976758003e-03</internalNodes>
          <leafValues>
            -9.6857689321041107e-02 5.0352680683135986e-01</leafValues></_>
        <_>
          <internalNodes>
            0 -1 207 9.9518452771008015e-05</internalNodes>
          <leafValues>
            1.9363640248775482e-01 -4.0366980433464050e-01</leafValues></_>
        <_>
          <internalNodes>
            0 -1 42 -2.4834968149662018e-02</internalNodes>
          <leafValues>
            -8.3549779653549194e-01 9.5663346350193024e-02</leafValues></_>
        <_>
          <internalNodes>
            0 -1 170 -3.5231057554483414e-03</internalNodes>
          <leafValues>
            2.9063534736633301e-01 -2.7897247672080994e-01</leafValues></_>
        <_>
          <internalNodes>
            0 -1 96 1.6300167888402939e-02</internalNodes>
          <leafValues>
            -1.7320151627063751e-01 4.5241251587867737e-01</leafValues></_>
        <_>
          <internalNodes>
            0 -1 37 1.6479115583933890e-04</internalNodes>
          <leafValues>
            2.2584103047847748e-01 -3.5903394222259521e-01</leafValues></_>
        <_>
          <internalNodes>
            0 -1 179 -3.4303274005651474e-02</internalNodes>
          <leafValues>
            5.4563498497009277e-01 -1.5808120369911194e-01</leafValues></_>
        <_>
          <internalNodes>
            0 -1 182 4.7145583666861057e-03</internalNodes>
          <leafValues>
            -1.3379746675491333e-01 5.4511463642120361e-01</leafValues></_>
        <_>
          <internalNodes>
            0 -1 15 1.4406636357307434e-02</internalNodes>
          <leafValues>
            -1.2299288809299469e-01 5.8570361137390137e-01</leafValues></_>
        <_>
          <internalNodes>
            0 -1 200 -2.0855899900197983e-02</internalNodes>
          <leafValues>
            -6.2425935268402100e-01 1.3234783709049225e-01</leafValues></_>
        <_>
          <internalNodes>
            0 -1 153 1.7881982028484344e-02</internalNodes>
          <leafValues>
            9.4725944101810455e-02 -7.1022820472717285e-01</leafValues></_>
        <_>
          <internalNodes>
            0 -1 184 1.4558715745806694e-02</internalNodes>
          <leafValues>
            5.6607663631439209e-02 -9.5036101341247559e-01</leafValues></_></weakClassifiers></_>
    <!-- stage 15 -->
    <_>
      <maxWeakCount>14</maxWeakCount>
      <stageThreshold>-1.0292396545410156e+00</stageThreshold>
      <weakClassifiers>
        <_>
          <internalNodes>
            0 -1 14 4.7759953886270523e-02</internalNodes>
          <leafValues>
            -1.8132854998111725e-01 9.2097264528274536e-01</leafValues></_>
        <_>
          <internalNodes>
            0 -1 8 -1.7238601576536894e-03</internalNodes>
          <leafValues>
            -6.4231467247009277e-01 2.0931075513362885e-01</leafValues></_>
        <_>
          <internalNodes>
            0 -1 48 -2.0359423756599426e-01</internalNodes>
          <leafValues>
            7.1976143121719360e-01 -1.3293541967868805e-01</leafValues></_>
        <_>
          <internalNodes>
            0 -1 145 3.8694661110639572e-02</internalNodes>
          <leafValues>
            -2.2211228311061859e-01 4.0698653459548950e-01</leafValues></_>
        <_>
          <internalNodes>
            0 -1 122 -2.0220880396664143e-03</internalNodes>
          <leafValues>
            2.5968959927558899e-01 -3.8934835791587830e-01</leafValues></_>
        <_>
          <internalNodes>
            0 -1 7 -6.3920572400093079e-02</internalNodes>
          <leafValues>
            -5.7772421836853027e-01 1.7314460873603821e-01</leafValues></_>
        <_>
          <internalNodes>
            0 -1 16 4.1269890964031219e-02</internalNodes>
          <leafValues>
            1.4526128768920898e-01 -6.2383520603179932e-01</leafValues></_>
        <_>
          <internalNodes>
            0 -1 105 2.5578099489212036e-01</internalNodes>
          <leafValues>
            -1.8927541375160217e-01 8.2027405500411987e-01</leafValues></_>
        <_>
          <internalNodes>
            0 -1 160 -2.3176595568656921e-03</internalNodes>
          <leafValues>
            3.5634699463844299e-01 -2.0412775874137878e-01</leafValues></_>
        <_>
          <internalNodes>
            0 -1 94 1.4062840491533279e-03</internalNodes>
          <leafValues>
            1.7973542213439941e-01 -5.6673890352249146e-01</leafValues></_>
        <_>
          <internalNodes>
            0 -1 161 2.9365136288106441e-04</internalNodes>
          <leafValues>
            -2.7005857229232788e-01 3.0021283030509949e-01</leafValues></_>
        <_>
          <internalNodes>
            0 -1 124 2.1404471248388290e-02</internalNodes>
          <leafValues>
            1.1641377955675125e-01 -7.0089942216873169e-01</leafValues></_>
        <_>
          <internalNodes>
            0 -1 74 5.9260576963424683e-03</internalNodes>
          <leafValues>
            -1.4288336038589478e-01 5.6007808446884155e-01</leafValues></_>
        <_>
          <internalNodes>
            0 -1 69 -1.6288023907691240e-03</internalNodes>
          <leafValues>
            -7.5134986639022827e-01 1.0149078816175461e-01</leafValues></_></weakClassifiers></_>
    <!-- stage 16 -->
    <_>
      <maxWeakCount>14</maxWeakCount>
      <stageThreshold>-8.7726813554763794e-01</stageThreshold>
      <weakClassifiers>
        <_>
          <internalNodes>
            0 -1 9 6.5597057342529297e-02</internalNodes>
          <leafValues>
            2.5782811641693115e-01 -7.7555108070373535e-01</leafValues></_>
        <_>
          <internalNodes>
            0 -1 189 1.3759740977548063e-04</internalNodes>
          <leafValues>
            2.3975335061550140e-01 -4.6224060654640198e-01</leafValues></_>
        <_>
          <internalNodes>
            0 -1 70 -2.1659774705767632e-02</internalNodes>
          <leafValues>
            5.9944880008697510e-01 -1.4843152463436127e-01</leafValues></_>
        <_>
          <internalNodes>
            0 -1 20 6.2078996561467648e-03</internalNodes>
          <leafValues>
            -1.6067460179328918e-01 4.9263843894004822e-01</leafValues></_>
        <_>
          <internalNodes>
            0 -1 175 -4.9243266694247723e-03</internalNodes>
          <leafValues>
            -7.4269020557403564e-01 1.0408266633749008e-01</leafValues></_>
        <_>
          <internalNodes>
            0 -1 168 2.1769474260509014e-03</internalNodes>
          <leafValues>
            -1.7575350403785706e-01 4.5575243234634399e-01</leafValues></_>
        <_>
          <internalNodes>
            0 -1 169 1.2294853106141090e-02</internalNodes>
          <leafValues>
            -2.6433917880058289e-01 3.7320318818092346e-01</leafValues></_>
        <_>
          <internalNodes>
            0 -1 154 -1.6036994755268097e-02</internalNodes>
          <leafValues>
            5.6470113992691040e-01 -1.2092881649732590e-01</leafValues></_>
        <_>
          <internalNodes>
            0 -1 80 4.0827132761478424e-02</internalNodes>
          <leafValues>
            -2.4017080664634705e-01 2.8876262903213501e-01</leafValues></_>
        <_>
          <internalNodes>
            0 -1 115 2.4989666417241096e-03</internalNodes>
          <leafValues>
            -2.2393378615379333e-01 3.8546043634414673e-01</leafValues></_>
        <_>
          <internalNodes>
            0 -1 73 -7.7004671096801758e-02</internalNodes>
          <leafValues>
            4.0269085764884949e-01 -1.7366337776184082e-01</leafValues></_>
        <_>
          <internalNodes>
            0 -1 132 1.7358703538775444e-02</internalNodes>
          <leafValues>
            -1.4902147650718689e-01 5.0507664680480957e-01</leafValues></_>
        <_>
          <internalNodes>
            0 -1 114 1.2562125921249390e-02</internalNodes>
          <leafValues>
            -1.2108389288187027e-01 5.2367728948593140e-01</leafValues></_>
        <_>
          <internalNodes>
            0 -1 97 1.8884491175413132e-02</internalNodes>
          <leafValues>
            -1.8196894228458405e-01 5.2148920297622681e-01</leafValues></_></weakClassifiers></_>
    <!-- stage 17 -->
    <_>
      <maxWeakCount>6</maxWeakCount>
      <stageThreshold>-9.1418904066085815e-01</stageThreshold>
      <weakClassifiers>
        <_>
          <internalNodes>
            0 -1 67 -2.3252377286553383e-03</internalNodes>
          <leafValues>
            -6.2168675661087036e-01 4.4102564454078674e-01</leafValues></_>
        <_>
          <internalNodes>
            0 -1 155 7.2701349854469299e-02</internalNodes>
          <leafValues>
            2.8212189674377441e-01 -5.5628561973571777e-01</leafValues></_>
        <_>
          <internalNodes>
            0 -1 202 -6.3995312666520476e-04</internalNodes>
          <leafValues>
            2.4444250762462616e-01 -4.3001815676689148e-01</leafValues></_>
        <_>
          <internalNodes>
            0 -1 174 -6.8020466715097427e-03</internalNodes>
          <leafValues>
            -8.0672955513000488e-01 1.8914115428924561e-01</leafValues></_>
        <_>
          <internalNodes>
            0 -1 140 5.0775357522070408e-03</internalNodes>
          <leafValues>
            -3.5710769891738892e-01 2.6162520051002502e-01</leafValues></_>
        <_>
          <internalNodes>
            0 -1 75 -1.1331819929182529e-02</internalNodes>
          <leafValues>
            4.0049836039543152e-01 -2.3097376525402069e-01</leafValues></_></weakClassifiers></_>
    <!-- stage 18 -->
    <_>
      <maxWeakCount>18</maxWeakCount>
      <stageThreshold>-9.4664436578750610e-01</stageThreshold>
      <weakClassifiers>
        <_>
          <internalNodes>
            0 -1 129 4.8206407576799393e-02</internalNodes>
          <leafValues>
            -3.1162101030349731e-01 6.4869028329849243e-01</leafValues></_>
        <_>
          <internalNodes>
            0 -1 76 -9.0370468795299530e-02</internalNodes>
          <leafValues>
            5.0498700141906738e-01 -2.3016150295734406e-01</leafValues></_>
        <_>
          <internalNodes>
            0 -1 110 3.4088481217622757e-02</internalNodes>
          <leafValues>
            -1.2333367764949799e-01 6.4318096637725830e-01</leafValues></_>
        <_>
          <internalNodes>
            0 -1 47 6.0409754514694214e-03</internalNodes>
          <leafValues>
            -2.7814012765884399e-01 3.2097834348678589e-01</leafValues></_>
        <_>
          <internalNodes>
            0 -1 53 3.4258118271827698e-01</internalNodes>
          <leafValues>
            -8.8303580880165100e-02 9.3521785736083984e-01</leafValues></_>
        <_>
          <internalNodes>
            0 -1 66 -9.4198919832706451e-03</internalNodes>
          <leafValues>
            -8.1783932447433472e-01 9.9949009716510773e-02</leafValues></_>
        <_>
          <internalNodes>
            0 -1 134 -3.6182917654514313e-02</internalNodes>
          <leafValues>
            5.6290316581726074e-01 -6.8015187978744507e-02</leafValues></_>
        <_>
          <internalNodes>
            0 -1 101 -7.2080539539456367e-03</internalNodes>
          <leafValues>
            2.7214458584785461e-01 -2.4187149107456207e-01</leafValues></_>
        <_>
          <internalNodes>
            0 -1 203 6.4683891832828522e-04</internalNodes>
          <leafValues>
            1.2242672592401505e-01 -4.9069172143936157e-01</leafValues></_>
        <_>
          <internalNodes>
            0 -1 28 1.0044030100107193e-01</internalNodes>
          <leafValues>
            -8.9408844709396362e-02 6.8633306026458740e-01</leafValues></_>
        <_>
          <internalNodes>
            0 -1 49 -1.2695062160491943e-01</internalNodes>
          <leafValues>
            5.8566570281982422e-01 -1.1526636779308319e-01</leafValues></_>
        <_>
          <internalNodes>
            0 -1 127 -7.3968112468719482e-02</internalNodes>
          <leafValues>
            7.3298484086990356e-01 -7.9213030636310577e-02</leafValues></_>
        <_>
          <internalNodes>
            0 -1 10 2.2338174283504486e-01</internalNodes>
          <leafValues>
            -3.8897573947906494e-02 9.5347774028778076e-01</leafValues></_>
        <_>
          <internalNodes>
            0 -1 58 2.2380186244845390e-02</internalNodes>
          <leafValues>
            -1.6896057128906250e-01 5.3494465351104736e-01</leafValues></_>
        <_>
          <internalNodes>
            0 -1 32 1.9079083576798439e-02</internalNodes>
          <leafValues>
            -1.3019669055938721e-01 6.1287099123001099e-01</leafValues></_>
        <_>
          <internalNodes>
            0 -1 90 6.6246926784515381e-02</internalNodes>
          <leafValues>
            -1.9966681301593781e-01 3.4113740921020508e-01</leafValues></_>
        <_>
          <internalNodes>
            0 -1 57 2.2770825307816267e-04</internalNodes>
          <leafValues>
            1.6576699912548065e-01 -4.6846494078636169e-01</leafValues></_>
        <_>
          <internalNodes>
            0 -1 72 1.8415713682770729e-02</internalNodes>
          <leafValues>
            -2.4828694760799408e-01 3.1425327062606812e-01</leafValues></_></weakClassifiers></_>
    <!-- stage 19 -->
    <_>
      <maxWeakCount>17</maxWeakCount>
      <stageThreshold>-8.7119823694229126e-01</stageThreshold>
      <weakClassifiers>
        <_>
          <internalNodes>
            0 -1 30 -2.8141263872385025e-02</internalNodes>
          <leafValues>
            8.0232560634613037e-01 -1.6666667163372040e-01</leafValues></_>
        <_>
          <internalNodes>
            0 -1 2 2.1937406063079834e-01</internalNodes>
          <leafValues>
            1.6935639083385468e-01 -6.7657464742660522e-01</leafValues></_>
        <_>
          <internalNodes>
            0 -1 55 -1.1169974505901337e-01</internalNodes>
          <leafValues>
            7.3471343517303467e-01 -1.1157207936048508e-01</leafValues></_>
        <_>
          <internalNodes>
            0 -1 60 2.8340053558349609e-01</internalNodes>
          <leafValues>
            -1.7193555831909180e-01 4.5072111487388611e-01</leafValues></_>
        <_>
          <internalNodes>
            0 -1 192 6.7158986348658800e-04</internalNodes>
          <leafValues>
            1.9130131602287292e-01 -3.9168831706047058e-01</leafValues></_>
        <_>
          <internalNodes>
            0 -1 83 -2.4021025747060776e-02</internalNodes>
          <leafValues>
            7.2270482778549194e-01 -5.5639076977968216e-02</leafValues></_>
        <_>
          <internalNodes>
            0 -1 135 -3.5690031945705414e-02</internalNodes>
          <leafValues>
            5.7717722654342651e-01 -1.3850000500679016e-01</leafValues></_>
        <_>
          <internalNodes>
            0 -1 151 -3.3369995653629303e-02</internalNodes>
          <leafValues>
            8.9639514684677124e-01 -7.6180815696716309e-02</leafValues></_>
        <_>
          <internalNodes>
            0 -1 77 4.0506972000002861e-03</internalNodes>
          <leafValues>
            1.3899642229080200e-01 -5.8103477954864502e-01</leafValues></_>
        <_>
          <internalNodes>
            0 -1 158 -8.5703767836093903e-03</internalNodes>
          <leafValues>
            3.5683539509773254e-01 -2.0045712590217590e-01</leafValues></_>
        <_>
          <internalNodes>
            0 -1 163 1.6392350196838379e-02</internalNodes>
          <leafValues>
            -1.2093697488307953e-01 5.2669501304626465e-01</leafValues></_>
        <_>
          <internalNodes>
            0 -1 144 1.8941238522529602e-02</internalNodes>
          <leafValues>
            -8.5979565978050232e-02 6.7577576637268066e-01</leafValues></_>
        <_>
          <internalNodes>
            0 -1 33 -6.6826064139604568e-03</internalNodes>
          <leafValues>
            -6.7705810070037842e-01 1.0318305343389511e-01</leafValues></_>
        <_>
          <internalNodes>
            0 -1 162 2.9624688904732466e-03</internalNodes>
          <leafValues>
            5.3903326392173767e-02 -8.6627066135406494e-01</leafValues></_>
        <_>
          <internalNodes>
            0 -1 22 -9.5162447541952133e-04</internalNodes>
          <leafValues>
            -3.3577677607536316e-01 1.3985469937324524e-01</leafValues></_>
        <_>
          <internalNodes>
            0 -1 0 5.0324991345405579e-02</internalNodes>
          <leafValues>
            6.2948971986770630e-02 -9.0650057792663574e-01</leafValues></_>
        <_>
          <internalNodes>
            0 -1 181 -3.8939230144023895e-02</internalNodes>
          <leafValues>
            -1. 3.5495582967996597e-02</leafValues></_></weakClassifiers></_></stages>
  <features>
    <_>
      <rects>
        <_>
          0 0 6 9 -1.</_>
        <_>
          3 0 3 9 2.</_></rects>
      <tilted>0</tilted></_>
    <_>
      <rects>
        <_>
          0 0 5 12 -1.</_>
        <_>
          0 6 5 6 2.</_></rects>
      <tilted>0</tilted></_>
    <_>
      <rects>
        <_>
          0 0 11 18 -1.</_>
        <_>
          0 9 11 9 2.</_></rects>
      <tilted>0</tilted></_>
    <_>
      <rects>
        <_>
          0 0 16 6 -1.</_>
        <_>
          0 3 16 3 2.</_></rects>
      <tilted>0</tilted></_>
    <_>
      <rects>
        <_>
          0 0 20 6 -1.</_>
        <_>
          0 2 20 2 3.</_></rects>
      <tilted>0</tilted></_>
    <_>
      <rects>
        <_>
          0 2 1 2 -1.</_>
        <_>
          0 3 1 1 2.</_></rects>
      <tilted>0</tilted></_>
    <_>
      <rects>
        <_>
          0 2 1 22 -1.</_>
        <_>
          0 13 1 11 2.</_></rects>
      <tilted>0</tilted></_>
    <_>
      <rects>
        <_>
          0 2 3 22 -1.</_>
        <_>
          0 13 3 11 2.</_></rects>
      <tilted>0</tilted></_>
    <_>
      <rects>
        <_>
          0 2 4 3 -1.</_>
        <_>
          0 3 4 1 3.</_></rects>
      <tilted>0</tilted></_>
    <_>
      <rects>
        <_>
          0 2 23 4 -1.</_>
        <_>
          0 4 23 2 2.</_></rects>
      <tilted>0</tilted></_>
    <_>
      <rects>
        <_>
          0 2 24 6 -1.</_>
        <_>
          0 5 24 3 2.</_></rects>
      <tilted>0</tilted></_>
    <_>
      <rects>
        <_>
          0 3 21 3 -1.</_>
        <_>
          0 4 21 1 3.</_></rects>
      <tilted>0</tilted></_>
    <_>
      <rects>
        <_>
          0 3 23 3 -1.</_>
        <_>
          0 4 23 1 3.</_></rects>
      <tilted>0</tilted></_>
    <_>
      <rects>
        <_>
          0 4 16 6 -1.</_>
        <_>
          8 4 8 6 2.</_></rects>
      <tilted>0</tilted></_>
    <_>
      <rects>
        <_>
          0 4 23 2 -1.</_>
        <_>
          0 5 23 1 2.</_></rects>
      <tilted>0</tilted></_>
    <_>
      <rects>
        <_>
          0 4 24 3 -1.</_>
        <_>
          0 5 24 1 3.</_></rects>
      <tilted>0</tilted></_>
    <_>
      <rects>
        <_>
          0 5 8 8 -1.</_>
        <_>
          0 9 8 4 2.</_></rects>
      <tilted>0</tilted></_>
    <_>
      <rects>
        <_>
          0 5 24 2 -1.</_>
        <_>
          0 6 24 1 2.</_></rects>
      <tilted>0</tilted></_>
    <_>
      <rects>
        <_>
          0 5 24 18 -1.</_>
        <_>
          0 11 24 6 3.</_></rects>
      <tilted>0</tilted></_>
    <_>
      <rects>
        <_>
          0 6 4 3 -1.</_>
        <_>
          0 7 4 1 3.</_></rects>
      <tilted>0</tilted></_>
    <_>
      <rects>
        <_>
          0 7 6 7 -1.</_>
        <_>
          2 7 2 7 3.</_></rects>
      <tilted>0</tilted></_>
    <_>
      <rects>
        <_>
          0 7 12 12 -1.</_>
        <_>
          6 7 6 12 2.</_></rects>
      <tilted>0</tilted></_>
    <_>
      <rects>
        <_>
          0 8 3 4 -1.</_>
        <_>
          0 10 3 2 2.</_></rects>
      <tilted>0</tilted></_>
    <_>
      <rects>
        <_>
          0 11 10 6 -1.</_>
        <_>
          5 11 5 6 2.</_></rects>
      <tilted>0</tilted></_>
    <_>
      <rects>
        <_>
          0 13 24 6 -1.</_>
        <_>
          8 13 8 6 3.</_></rects>
      <tilted>0</tilted></_>
    <_>
      <rects>
        <_>
          0 14 24 5 -1.</_>
        <_>
          8 14 8 5 3.</_></rects>
      <tilted>0</tilted></_>
    <_>
      <rects>
        <_>
          0 14 24 3 -1.</_>
        <_>
          0 15 24 1 3.</_></rects>
      <tilted>0</tilted></_>
    <_>
      <rects>
        <_>
          0 15 21 9 -1.</_>
        <_>
          7 15 7 9 3.</_></rects>
      <tilted>0</tilted></_>
    <_>
      <rects>
        <_>
          0 15 16 5 -1.</_>
        <_>
          8 15 8 5 2.</_></rects>
      <tilted>0</tilted></_>
    <_>
      <rects>
        <_>
          0 16 20 8 -1.</_>
        <_>
          10 16 10 8 2.</_></rects>
      <tilted>0</tilted></_>
    <_>
      <rects>
        <_>
          0 18 24 2 -1.</_>
        <_>
          0 19 24 1 2.</_></rects>
      <tilted>0</tilted></_>
    <_>
      <rects>
        <_>
          0 18 24 4 -1.</_>
        <_>
          0 20 24 2 2.</_></rects>
      <tilted>0</tilted></_>
    <_>
      <rects>
        <_>
          0 19 21 4 -1.</_>
        <_>
          0 21 21 2 2.</_></rects>
      <tilted>0</tilted></_>
    <_>
      <rects>
        <_>
          1 0 2 6 -1.</_>
        <_>
          1 2 2 2 3.</_></rects>
      <tilted>0</tilted></_>
    <_>
      <rects>
        <_>
          1 0 5 4 -1.</_>
        <_>
          1 2 5 2 2.</_></rects>
      <tilted>0</tilted></_>
    <_>
      <rects>
        <_>
          1 1 21 5 -1.</_>
        <_>
          8 1 7 5 3.</_></rects>
      <tilted>0</tilted></_>
    <_>
      <rects>
        <_>
          1 1 22 14 -1.</_>
        <_>
          1 8 22 7 2.</_></rects>
      <tilted>0</tilted></_>
    <_>
      <rects>
        <_>
          1 2 4 2 -1.</_>
        <_>
          1 3 4 1 2.</_></rects>
      <tilted>0</tilted></_>
    <_>
      <rects>
        <_>
          1 2 5 12 -1.</_>
        <_>
          1 8 5 6 2.</_></rects>
      <tilted>0</tilted></_>
    <_>
      <rects>
        <_>
          1 3 3 2 -1.</_>
        <_>
          1 4 3 1 2.</_></rects>
      <tilted>0</tilted></_>
    <_>
      <rects>
        <_>
          1 3 14 1 -1.</_>
        <_>
          8 3 7 1 2.</_></rects>
      <tilted>0</tilted></_>
    <_>
      <rects>
        <_>
          1 3 21 20 -1.</_>
        <_>
          8 3 7 20 3.</_></rects>
      <tilted>0</tilted></_>
    <_>
      <rects>
        <_>
          1 4 4 9 -1.</_>
        <_>
          1 7 4 3 3.</_></rects>
      <tilted>0</tilted></_>
    <_>
      <rects>
        <_>
          1 4 20 2 -1.</_>
        <_>
          1 5 20 1 2.</_></rects>
      <tilted>0</tilted></_>
    <_>
      <rects>
        <_>
          1 5 3 3 -1.</_>
        <_>
          1 6 3 1 3.</_></rects>
      <tilted>0</tilted></_>
    <_>
      <rects>
        <_>
          1 5 22 2 -1.</_>
        <_>
          1 6 22 1 2.</_></rects>
      <tilted>0</tilted></_>
    <_>
      <rects>
        <_>
          1 6 5 9 -1.</_>
        <_>
          1 9 5 3 3.</_></rects>
      <tilted>0</tilted></_>
    <_>
      <rects>
        <_>
          1 11 21 3 -1.</_>
        <_>
          1 12 21 1 3.</_></rects>
      <tilted>0</tilted></_>
    <_>
      <rects>
        <_>
          1 13 21 7 -1.</_>
        <_>
          8 13 7 7 3.</_></rects>
      <tilted>0</tilted></_>
    <_>
      <rects>
        <_>
          1 14 21 5 -1.</_>
        <_>
          8 14 7 5 3.</_></rects>
      <tilted>0</tilted></_>
    <_>
      <rects>
        <_>
          1 16 12 2 -1.</_>
        <_>
          7 16 6 2 2.</_></rects>
      <tilted>0</tilted></_>
    <_>
      <rects>
        <_>
          1 21 19 3 -1.</_>
        <_>
          1 22 19 1 3.</_></rects>
      <tilted>0</tilted></_>
    <_>
      <rects>
        <_>
          2 0 13 6 -1.</_>
        <_>
          2 3 13 3 2.</_></rects>
      <tilted>0</tilted></_>
    <_>
      <rects>
        <_>
          2 0 22 10 -1.</_>
        <_>
          2 5 22 5 2.</_></rects>
      <tilted>0</tilted></_>
    <_>
      <rects>
        <_>
          2 1 2 1 -1.</_>
        <_>
          3 1 1 1 2.</_></rects>
      <tilted>0</tilted></_>
    <_>
      <rects>
        <_>
          2 1 21 3 -1.</_>
        <_>
          9 1 7 3 3.</_></rects>
      <tilted>0</tilted></_>
    <_>
      <rects>
        <_>
          2 1 20 2 -1.</_>
        <_>
          2 1 10 1 2.</_>
        <_>
          12 2 10 1 2.</_></rects>
      <tilted>0</tilted></_>
    <_>
      <rects>
        <_>
          2 3 2 2 -1.</_>
        <_>
          2 3 1 1 2.</_>
        <_>
          3 4 1 1 2.</_></rects>
      <tilted>0</tilted></_>
    <_>
      <rects>
        <_>
          2 3 21 1 -1.</_>
        <_>
          9 3 7 1 3.</_></rects>
      <tilted>0</tilted></_>
    <_>
      <rects>
        <_>
          2 3 11 2 -1.</_>
        <_>
          2 4 11 1 2.</_></rects>
      <tilted>0</tilted></_>
    <_>
      <rects>
        <_>
          2 3 18 21 -1.</_>
        <_>
          2 10 18 7 3.</_></rects>
      <tilted>0</tilted></_>
    <_>
      <rects>
        <_>
          2 3 21 16 -1.</_>
        <_>
          2 11 21 8 2.</_></rects>
      <tilted>0</tilted></_>
    <_>
      <rects>
        <_>
          2 4 22 3 -1.</_>
        <_>
          2 5 22 1 3.</_></rects>
      <tilted>0</tilted></_>
    <_>
      <rects>
        <_>
          2 13 20 6 -1.</_>
        <_>
          2 16 20 3 2.</_></rects>
      <tilted>0</tilted></_>
    <_>
      <rects>
        <_>
          2 15 12 2 -1.</_>
        <_>
          2 16 12 1 2.</_></rects>
      <tilted>0</tilted></_>
    <_>
      <rects>
        <_>
          2 18 7 6 -1.</_>
        <_>
          2 21 7 3 2.</_></rects>
      <tilted>0</tilted></_>
    <_>
      <rects>
        <_>
          2 18 20 3 -1.</_>
        <_>
          2 19 20 1 3.</_></rects>
      <tilted>0</tilted></_>
    <_>
      <rects>
        <_>
          2 19 2 4 -1.</_>
        <_>
          2 21 2 2 2.</_></rects>
      <tilted>0</tilted></_>
    <_>
      <rects>
        <_>
          3 0 15 9 -1.</_>
        <_>
          3 3 15 3 3.</_></rects>
      <tilted>0</tilted></_>
    <_>
      <rects>
        <_>
          3 1 2 3 -1.</_>
        <_>
          3 2 2 1 3.</_></rects>
      <tilted>0</tilted></_>
    <_>
      <rects>
        <_>
          3 2 12 6 -1.</_>
        <_>
          3 2 6 3 2.</_>
        <_>
          9 5 6 3 2.</_></rects>
      <tilted>0</tilted></_>
    <_>
      <rects>
        <_>
          3 2 18 5 -1.</_>
        <_>
          9 2 6 5 3.</_></rects>
      <tilted>0</tilted></_>
    <_>
      <rects>
        <_>
          3 2 19 4 -1.</_>
        <_>
          3 4 19 2 2.</_></rects>
      <tilted>0</tilted></_>
    <_>
      <rects>
        <_>
          3 3 18 20 -1.</_>
        <_>
          9 3 6 20 3.</_></rects>
      <tilted>0</tilted></_>
    <_>
      <rects>
        <_>
          3 6 3 8 -1.</_>
        <_>
          4 6 1 8 3.</_></rects>
      <tilted>0</tilted></_>
    <_>
      <rects>
        <_>
          3 6 9 5 -1.</_>
        <_>
          6 6 3 5 3.</_></rects>
      <tilted>0</tilted></_>
    <_>
      <rects>
        <_>
          3 16 19 8 -1.</_>
        <_>
          3 20 19 4 2.</_></rects>
      <tilted>0</tilted></_>
    <_>
      <rects>
        <_>
          3 21 18 3 -1.</_>
        <_>
          3 22 18 1 3.</_></rects>
      <tilted>0</tilted></_>
    <_>
      <rects>
        <_>
          4 0 16 6 -1.</_>
        <_>
          4 3 16 3 2.</_></rects>
      <tilted>0</tilted></_>
    <_>
      <rects>
        <_>
          4 0 17 10 -1.</_>
        <_>
          4 5 17 5 2.</_></rects>
      <tilted>0</tilted></_>
    <_>
      <rects>
        <_>
          4 0 20 6 -1.</_>
        <_>
          4 3 20 3 2.</_></rects>
      <tilted>0</tilted></_>
    <_>
      <rects>
        <_>
          4 3 16 6 -1.</_>
        <_>
          4 5 16 2 3.</_></rects>
      <tilted>0</tilted></_>
    <_>
      <rects>
        <_>
          4 6 6 4 -1.</_>
        <_>
          4 6 3 2 2.</_>
        <_>
          7 8 3 2 2.</_></rects>
      <tilted>0</tilted></_>
    <_>
      <rects>
        <_>
          4 10 16 4 -1.</_>
        <_>
          4 12 16 2 2.</_></rects>
      <tilted>0</tilted></_>
    <_>
      <rects>
        <_>
          5 0 7 6 -1.</_>
        <_>
          5 2 7 2 3.</_></rects>
      <tilted>0</tilted></_>
    <_>
      <rects>
        <_>
          5 0 14 18 -1.</_>
        <_>
          5 9 14 9 2.</_></rects>
      <tilted>0</tilted></_>
    <_>
      <rects>
        <_>
          5 0 16 6 -1.</_>
        <_>
          5 3 16 3 2.</_></rects>
      <tilted>0</tilted></_>
    <_>
      <rects>
        <_>
          5 1 14 6 -1.</_>
        <_>
          5 3 14 2 3.</_></rects>
      <tilted>0</tilted></_>
    <_>
      <rects>
        <_>
          5 3 14 8 -1.</_>
        <_>
          5 3 7 4 2.</_>
        <_>
          12 7 7 4 2.</_></rects>
      <tilted>0</tilted></_>
    <_>
      <rects>
        <_>
          5 5 8 2 -1.</_>
        <_>
          5 6 8 1 2.</_></rects>
      <tilted>0</tilted></_>
    <_>
      <rects>
        <_>
          5 9 12 9 -1.</_>
        <_>
          5 12 12 3 3.</_></rects>
      <tilted>0</tilted></_>
    <_>
      <rects>
        <_>
          5 9 13 4 -1.</_>
        <_>
          5 11 13 2 2.</_></rects>
      <tilted>0</tilted></_>
    <_>
      <rects>
        <_>
          5 11 12 6 -1.</_>
        <_>
          5 11 6 3 2.</_>
        <_>
          11 14 6 3 2.</_></rects>
      <tilted>0</tilted></_>
    <_>
      <rects>
        <_>
          5 14 15 10 -1.</_>
        <_>
          5 19 15 5 2.</_></rects>
      <tilted>0</tilted></_>
    <_>
      <rects>
        <_>
          5 15 14 2 -1.</_>
        <_>
          5 16 14 1 2.</_></rects>
      <tilted>0</tilted></_>
    <_>
      <rects>
        <_>
          5 17 14 6 -1.</_>
        <_>
          5 20 14 3 2.</_></rects>
      <tilted>0</tilted></_>
    <_>
      <rects>
        <_>
          5 20 12 3 -1.</_>
        <_>
          9 20 4 3 3.</_></rects>
      <tilted>0</tilted></_>
    <_>
      <rects>
        <_>
          5 21 15 2 -1.</_>
        <_>
          10 21 5 2 3.</_></rects>
      <tilted>0</tilted></_>
    <_>
      <rects>
        <_>
          6 0 18 6 -1.</_>
        <_>
          6 3 18 3 2.</_></rects>
      <tilted>0</tilted></_>
    <_>
      <rects>
        <_>
          6 4 11 2 -1.</_>
        <_>
          6 5 11 1 2.</_></rects>
      <tilted>0</tilted></_>
    <_>
      <rects>
        <_>
          6 6 12 18 -1.</_>
        <_>
          6 12 12 6 3.</_></rects>
      <tilted>0</tilted></_>
    <_>
      <rects>
        <_>
          6 7 6 10 -1.</_>
        <_>
          8 7 2 10 3.</_></rects>
      <tilted>0</tilted></_>
    <_>
      <rects>
        <_>
          6 7 14 16 -1.</_>
        <_>
          6 15 14 8 2.</_></rects>
      <tilted>0</tilted></_>
    <_>
      <rects>
        <_>
          6 8 12 15 -1.</_>
        <_>
          6 13 12 5 3.</_></rects>
      <tilted>0</tilted></_>
    <_>
      <rects>
        <_>
          6 9 11 6 -1.</_>
        <_>
          6 11 11 2 3.</_></rects>
      <tilted>0</tilted></_>
    <_>
      <rects>
        <_>
          6 9 13 15 -1.</_>
        <_>
          6 14 13 5 3.</_></rects>
      <tilted>0</tilted></_>
    <_>
      <rects>
        <_>
          6 10 12 2 -1.</_>
        <_>
          6 11 12 1 2.</_></rects>
      <tilted>0</tilted></_>
    <_>
      <rects>
        <_>
          6 13 10 10 -1.</_>
        <_>
          6 18 10 5 2.</_></rects>
      <tilted>0</tilted></_>
    <_>
      <rects>
        <_>
          6 17 18 6 -1.</_>
        <_>
          6 20 18 3 2.</_></rects>
      <tilted>0</tilted></_>
    <_>
      <rects>
        <_>
          6 18 16 4 -1.</_>
        <_>
          6 20 16 2 2.</_></rects>
      <tilted>0</tilted></_>
    <_>
      <rects>
        <_>
          6 18 16 6 -1.</_>
        <_>
          6 21 16 3 2.</_></rects>
      <tilted>0</tilted></_>
    <_>
      <rects>
        <_>
          7 0 6 22 -1.</_>
        <_>
          7 0 3 11 2.</_>
        <_>
          10 11 3 11 2.</_></rects>
      <tilted>0</tilted></_>
    <_>
      <rects>
        <_>
          7 2 9 6 -1.</_>
        <_>
          7 5 9 3 2.</_></rects>
      <tilted>0</tilted></_>
    <_>
      <rects>
        <_>
          7 4 4 8 -1.</_>
        <_>
          9 4 2 8 2.</_></rects>
      <tilted>0</tilted></_>
    <_>
      <rects>
        <_>
          7 5 17 2 -1.</_>
        <_>
          7 6 17 1 2.</_></rects>
      <tilted>0</tilted></_>
    <_>
      <rects>
        <_>
          7 6 4 2 -1.</_>
        <_>
          9 6 2 2 2.</_></rects>
      <tilted>0</tilted></_>
    <_>
      <rects>
        <_>
          7 6 7 3 -1.</_>
        <_>
          7 7 7 1 3.</_></rects>
      <tilted>0</tilted></_>
    <_>
      <rects>
        <_>
          7 6 9 3 -1.</_>
        <_>
          7 7 9 1 3.</_></rects>
      <tilted>0</tilted></_>
    <_>
      <rects>
        <_>
          7 6 9 18 -1.</_>
        <_>
          7 12 9 6 3.</_></rects>
      <tilted>0</tilted></_>
    <_>
      <rects>
        <_>
          7 8 10 3 -1.</_>
        <_>
          7 9 10 1 3.</_></rects>
      <tilted>0</tilted></_>
    <_>
      <rects>
        <_>
          7 9 10 9 -1.</_>
        <_>
          7 12 10 3 3.</_></rects>
      <tilted>0</tilted></_>
    <_>
      <rects>
        <_>
          7 9 11 12 -1.</_>
        <_>
          7 13 11 4 3.</_></rects>
      <tilted>0</tilted></_>
    <_>
      <rects>
        <_>
          7 12 8 4 -1.</_>
        <_>
          7 14 8 2 2.</_></rects>
      <tilted>0</tilted></_>
    <_>
      <rects>
        <_>
          7 18 2 6 -1.</_>
        <_>
          7 21 2 3 2.</_></rects>
      <tilted>0</tilted></_>
    <_>
      <rects>
        <_>
          8 0 15 2 -1.</_>
        <_>
          13 0 5 2 3.</_></rects>
      <tilted>0</tilted></_>
    <_>
      <rects>
        <_>
          8 0 8 9 -1.</_>
        <_>
          8 3 8 3 3.</_></rects>
      <tilted>0</tilted></_>
    <_>
      <rects>
        <_>
          8 0 9 4 -1.</_>
        <_>
          8 2 9 2 2.</_></rects>
      <tilted>0</tilted></_>
    <_>
      <rects>
        <_>
          8 1 8 9 -1.</_>
        <_>
          8 4 8 3 3.</_></rects>
      <tilted>0</tilted></_>
    <_>
      <rects>
        <_>
          8 1 10 6 -1.</_>
        <_>
          8 3 10 2 3.</_></rects>
      <tilted>0</tilted></_>
    <_>
      <rects>
        <_>
          8 2 8 6 -1.</_>
        <_>
          8 5 8 3 2.</_></rects>
      <tilted>0</tilted></_>
    <_>
      <rects>
        <_>
          8 3 9 6 -1.</_>
        <_>
          11 3 3 6 3.</_></rects>
      <tilted>0</tilted></_>
    <_>
      <rects>
        <_>
          8 4 9 6 -1.</_>
        <_>
          8 6 9 2 3.</_></rects>
      <tilted>0</tilted></_>
    <_>
      <rects>
        <_>
          8 9 2 9 -1.</_>
        <_>
          8 12 2 3 3.</_></rects>
      <tilted>0</tilted></_>
    <_>
      <rects>
        <_>
          8 10 8 4 -1.</_>
        <_>
          8 12 8 2 2.</_></rects>
      <tilted>0</tilted></_>
    <_>
      <rects>
        <_>
          8 16 8 6 -1.</_>
        <_>
          8 19 8 3 2.</_></rects>
      <tilted>0</tilted></_>
    <_>
      <rects>
        <_>
          8 19 16 2 -1.</_>
        <_>
          16 19 8 2 2.</_></rects>
      <tilted>0</tilted></_>
    <_>
      <rects>
        <_>
          8 21 3 3 -1.</_>
        <_>
          8 22 3 1 3.</_></rects>
      <tilted>0</tilted></_>
    <_>
      <rects>
        <_>
          9 0 6 6 -1.</_>
        <_>
          9 2 6 2 3.</_></rects>
      <tilted>0</tilted></_>
    <_>
      <rects>
        <_>
          9 1 6 3 -1.</_>
        <_>
          11 1 2 3 3.</_></rects>
      <tilted>0</tilted></_>
    <_>
      <rects>
        <_>
          9 4 2 7 -1.</_>
        <_>
          10 4 1 7 2.</_></rects>
      <tilted>0</tilted></_>
    <_>
      <rects>
        <_>
          9 4 12 6 -1.</_>
        <_>
          9 4 6 3 2.</_>
        <_>
          15 7 6 3 2.</_></rects>
      <tilted>0</tilted></_>
    <_>
      <rects>
        <_>
          9 6 2 4 -1.</_>
        <_>
          10 6 1 4 2.</_></rects>
      <tilted>0</tilted></_>
    <_>
      <rects>
        <_>
          9 6 6 6 -1.</_>
        <_>
          11 6 2 6 3.</_></rects>
      <tilted>0</tilted></_>
    <_>
      <rects>
        <_>
          9 6 6 12 -1.</_>
        <_>
          9 12 6 6 2.</_></rects>
      <tilted>0</tilted></_>
    <_>
      <rects>
        <_>
          9 7 6 6 -1.</_>
        <_>
          9 9 6 2 3.</_></rects>
      <tilted>0</tilted></_>
    <_>
      <rects>
        <_>
          9 7 6 10 -1.</_>
        <_>
          9 12 6 5 2.</_></rects>
      <tilted>0</tilted></_>
    <_>
      <rects>
        <_>
          9 8 6 7 -1.</_>
        <_>
          11 8 2 7 3.</_></rects>
      <tilted>0</tilted></_>
    <_>
      <rects>
        <_>
          9 9 1 6 -1.</_>
        <_>
          9 12 1 3 2.</_></rects>
      <tilted>0</tilted></_>
    <_>
      <rects>
        <_>
          9 10 4 3 -1.</_>
        <_>
          9 11 4 1 3.</_></rects>
      <tilted>0</tilted></_>
    <_>
      <rects>
        <_>
          9 10 7 6 -1.</_>
        <_>
          9 12 7 2 3.</_></rects>
      <tilted>0</tilted></_>
    <_>
      <rects>
        <_>
          9 12 2 4 -1.</_>
        <_>
          9 14 2 2 2.</_></rects>
      <tilted>0</tilted></_>
    <_>
      <rects>
        <_>
          9 16 6 4 -1.</_>
        <_>
          9 18 6 2 2.</_></rects>
      <tilted>0</tilted></_>
    <_>
      <rects>
        <_>
          9 20 11 4 -1.</_>
        <_>
          9 22 11 2 2.</_></rects>
      <tilted>0</tilted></_>
    <_>
      <rects>
        <_>
          10 0 4 22 -1.</_>
        <_>
          10 0 2 11 2.</_>
        <_>
          12 11 2 11 2.</_></rects>
      <tilted>0</tilted></_>
    <_>
      <rects>
        <_>
          10 0 3 6 -1.</_>
        <_>
          10 2 3 2 3.</_></rects>
      <tilted>0</tilted></_>
    <_>
      <rects>
        <_>
          10 0 5 10 -1.</_>
        <_>
          10 5 5 5 2.</_></rects>
      <tilted>0</tilted></_>
    <_>
      <rects>
        <_>
          10 4 12 5 -1.</_>
        <_>
          14 4 4 5 3.</_></rects>
      <tilted>0</tilted></_>
    <_>
      <rects>
        <_>
          10 4 10 6 -1.</_>
        <_>
          10 4 5 3 2.</_>
        <_>
          15 7 5 3 2.</_></rects>
      <tilted>0</tilted></_>
    <_>
      <rects>
        <_>
          10 7 6 4 -1.</_>
        <_>
          10 9 6 2 2.</_></rects>
      <tilted>0</tilted></_>
    <_>
      <rects>
        <_>
          10 8 2 3 -1.</_>
        <_>
          10 9 2 1 3.</_></rects>
      <tilted>0</tilted></_>
    <_>
      <rects>
        <_>
          10 8 12 1 -1.</_>
        <_>
          14 8 4 1 3.</_></rects>
      <tilted>0</tilted></_>
    <_>
      <rects>
        <_>
          10 9 2 1 -1.</_>
        <_>
          11 9 1 1 2.</_></rects>
      <tilted>0</tilted></_>
    <_>
      <rects>
        <_>
          11 0 2 6 -1.</_>
        <_>
          11 0 1 3 2.</_>
        <_>
          12 3 1 3 2.</_></rects>
      <tilted>0</tilted></_>
    <_>
      <rects>
        <_>
          11 2 10 6 -1.</_>
        <_>
          11 2 5 3 2.</_>
        <_>
          16 5 5 3 2.</_></rects>
      <tilted>0</tilted></_>
    <_>
      <rects>
        <_>
          11 10 1 2 -1.</_>
        <_>
          11 11 1 1 2.</_></rects>
      <tilted>0</tilted></_>
    <_>
      <rects>
        <_>
          11 18 2 3 -1.</_>
        <_>
          11 19 2 1 3.</_></rects>
      <tilted>0</tilted></_>
    <_>
      <rects>
        <_>
          12 0 7 6 -1.</_>
        <_>
          12 3 7 3 2.</_></rects>
      <tilted>0</tilted></_>
    <_>
      <rects>
        <_>
          12 3 4 3 -1.</_>
        <_>
          12 4 4 1 3.</_></rects>
      <tilted>0</tilted></_>
    <_>
      <rects>
        <_>
          12 8 1 6 -1.</_>
        <_>
          12 10 1 2 3.</_></rects>
      <tilted>0</tilted></_>
    <_>
      <rects>
        <_>
          12 8 3 10 -1.</_>
        <_>
          12 13 3 5 2.</_></rects>
      <tilted>0</tilted></_>
    <_>
      <rects>
        <_>
          12 9 6 5 -1.</_>
        <_>
          14 9 2 5 3.</_></rects>
      <tilted>0</tilted></_>
    <_>
      <rects>
        <_>
          12 15 12 2 -1.</_>
        <_>
          18 15 6 2 2.</_></rects>
      <tilted>0</tilted></_>
    <_>
      <rects>
        <_>
          12 15 12 8 -1.</_>
        <_>
          18 15 6 8 2.</_></rects>
      <tilted>0</tilted></_>
    <_>
      <rects>
        <_>
          13 15 10 2 -1.</_>
        <_>
          18 15 5 2 2.</_></rects>
      <tilted>0</tilted></_>
    <_>
      <rects>
        <_>
          13 16 9 3 -1.</_>
        <_>
          13 17 9 1 3.</_></rects>
      <tilted>0</tilted></_>
    <_>
      <rects>
        <_>
          13 17 6 3 -1.</_>
        <_>
          13 18 6 1 3.</_></rects>
      <tilted>0</tilted></_>
    <_>
      <rects>
        <_>
          14 5 3 2 -1.</_>
        <_>
          14 6 3 1 2.</_></rects>
      <tilted>0</tilted></_>
    <_>
      <rects>
        <_>
          14 9 1 6 -1.</_>
        <_>
          14 12 1 3 2.</_></rects>
      <tilted>0</tilted></_>
    <_>
      <rects>
        <_>
          15 3 1 6 -1.</_>
        <_>
          15 5 1 2 3.</_></rects>
      <tilted>0</tilted></_>
    <_>
      <rects>
        <_>
          15 5 6 14 -1.</_>
        <_>
          17 5 2 14 3.</_></rects>
      <tilted>0</tilted></_>
    <_>
      <rects>
        <_>
          15 6 9 12 -1.</_>
        <_>
          18 6 3 12 3.</_></rects>
      <tilted>0</tilted></_>
    <_>
      <rects>
        <_>
          16 0 8 4 -1.</_>
        <_>
          20 0 4 4 2.</_></rects>
      <tilted>0</tilted></_>
    <_>
      <rects>
        <_>
          17 5 3 8 -1.</_>
        <_>
          18 5 1 8 3.</_></rects>
      <tilted>0</tilted></_>
    <_>
      <rects>
        <_>
          17 5 6 11 -1.</_>
        <_>
          19 5 2 11 3.</_></rects>
      <tilted>0</tilted></_>
    <_>
      <rects>
        <_>
          17 8 4 4 -1.</_>
        <_>
          17 10 4 2 2.</_></rects>
      <tilted>0</tilted></_>
    <_>
      <rects>
        <_>
          17 12 7 6 -1.</_>
        <_>
          17 15 7 3 2.</_></rects>
      <tilted>0</tilted></_>
    <_>
      <rects>
        <_>
          17 23 6 1 -1.</_>
        <_>
          19 23 2 1 3.</_></rects>
      <tilted>0</tilted></_>
    <_>
      <rects>
        <_>
          18 0 4 6 -1.</_>
        <_>
          18 3 4 3 2.</_></rects>
      <tilted>0</tilted></_>
    <_>
      <rects>
        <_>
          18 1 6 7 -1.</_>
        <_>
          21 1 3 7 2.</_></rects>
      <tilted>0</tilted></_>
    <_>
      <rects>
        <_>
          18 1 4 4 -1.</_>
        <_>
          18 3 4 2 2.</_></rects>
      <tilted>0</tilted></_>
    <_>
      <rects>
        <_>
          18 10 6 6 -1.</_>
        <_>
          18 13 6 3 2.</_></rects>
      <tilted>0</tilted></_>
    <_>
      <rects>
        <_>
          19 0 4 1 -1.</_>
        <_>
          21 0 2 1 2.</_></rects>
      <tilted>0</tilted></_>
    <_>
      <rects>
        <_>
          19 1 2 8 -1.</_>
        <_>
          19 5 2 4 2.</_></rects>
      <tilted>0</tilted></_>
    <_>
      <rects>
        <_>
          19 2 4 1 -1.</_>
        <_>
          21 2 2 1 2.</_></rects>
      <tilted>0</tilted></_>
    <_>
      <rects>
        <_>
          19 4 5 10 -1.</_>
        <_>
          19 9 5 5 2.</_></rects>
      <tilted>0</tilted></_>
    <_>
      <rects>
        <_>
          19 5 1 3 -1.</_>
        <_>
          19 6 1 1 3.</_></rects>
      <tilted>0</tilted></_>
    <_>
      <rects>
        <_>
          19 8 5 9 -1.</_>
        <_>
          19 11 5 3 3.</_></rects>
      <tilted>0</tilted></_>
    <_>
      <rects>
        <_>
          19 16 5 6 -1.</_>
        <_>
          19 18 5 2 3.</_></rects>
      <tilted>0</tilted></_>
    <_>
      <rects>
        <_>
          20 1 1 3 -1.</_>
        <_>
          20 2 1 1 3.</_></rects>
      <tilted>0</tilted></_>
    <_>
      <rects>
        <_>
          20 1 4 3 -1.</_>
        <_>
          20 2 4 1 3.</_></rects>
      <tilted>0</tilted></_>
    <_>
      <rects>
        <_>
          20 12 4 8 -1.</_>
        <_>
          20 16 4 4 2.</_></rects>
      <tilted>0</tilted></_>
    <_>
      <rects>
        <_>
          20 13 4 2 -1.</_>
        <_>
          20 14 4 1 2.</_></rects>
      <tilted>0</tilted></_>
    <_>
      <rects>
        <_>
          21 0 3 24 -1.</_>
        <_>
          21 12 3 12 2.</_></rects>
      <tilted>0</tilted></_>
    <_>
      <rects>
        <_>
          21 1 2 4 -1.</_>
        <_>
          21 1 1 2 2.</_>
        <_>
          22 3 1 2 2.</_></rects>
      <tilted>0</tilted></_>
    <_>
      <rects>
        <_>
          21 15 2 8 -1.</_>
        <_>
          22 15 1 8 2.</_></rects>
      <tilted>0</tilted></_>
    <_>
      <rects>
        <_>
          22 0 1 6 -1.</_>
        <_>
          22 3 1 3 2.</_></rects>
      <tilted>0</tilted></_>
    <_>
      <rects>
        <_>
          22 5 2 15 -1.</_>
        <_>
          22 10 2 5 3.</_></rects>
      <tilted>0</tilted></_>
    <_>
      <rects>
        <_>
          22 23 2 1 -1.</_>
        <_>
          23 23 1 1 2.</_></rects>
      <tilted>0</tilted></_>
    <_>
      <rects>
        <_>
          23 0 1 3 -1.</_>
        <_>
          23 1 1 1 3.</_></rects>
      <tilted>0</tilted></_>
    <_>
      <rects>
        <_>
          23 0 1 24 -1.</_>
        <_>
          23 12 1 12 2.</_></rects>
      <tilted>0</tilted></_>
    <_>
      <rects>
        <_>
          23 3 1 16 -1.</_>
        <_>
          23 11 1 8 2.</_></rects>
      <tilted>0</tilted></_></features></cascade>
</opencv_storage>
